digraph Tree {
node [shape=box] ;
0 [label="X[0] <= -0.18\ngini = 0.5\nsamples = 1147\nvalue = [573.5, 573.5]"] ;
1 [label="gini = 0.452\nsamples = 786\nvalue = [454.869, 239.827]"] ;
0 -> 1 [labeldistance=2.5, labelangle=45, headlabel="True"] ;
198 [label="X[14] <= -0.315\ngini = 0.387\nsamples = 361\nvalue = [118.631, 333.673]"] ;
0 -> 198 [labeldistance=2.5, labelangle=-45, headlabel="False"] ;
199 [label="X[2] <= -0.082\ngini = 0.479\nsamples = 62\nvalue = [34.396, 22.592]"] ;
198 -> 199 ;
200 [label="X[13] <= -0.418\ngini = 0.43\nsamples = 58\nvalue = [34.396, 15.641]"] ;
199 -> 200 ;
201 [label="gini = 0.0\nsamples = 20\nvalue = [14.039, 0.0]"] ;
200 -> 201 ;
202 [label="X[3] <= 0.363\ngini = 0.491\nsamples = 38\nvalue = [20.357, 15.641]"] ;
200 -> 202 ;
203 [label="X[6] <= -0.344\ngini = 0.448\nsamples = 35\nvalue = [20.357, 10.427]"] ;
202 -> 203 ;
204 [label="gini = 0.0\nsamples = 15\nvalue = [10.529, 0.0]"] ;
203 -> 204 ;
205 [label="X[18] <= -0.707\ngini = 0.5\nsamples = 20\nvalue = [9.827, 10.427]"] ;
203 -> 205 ;
206 [label="gini = 0.0\nsamples = 8\nvalue = [5.616, 0.0]"] ;
205 -> 206 ;
207 [label="gini = 0.41\nsamples = 12\nvalue = [4.212, 10.427]"] ;
205 -> 207 ;
214 [label="gini = -0.0\nsamples = 3\nvalue = [0.0, 5.214]"] ;
202 -> 214 ;
215 [label="gini = -0.0\nsamples = 4\nvalue = [0.0, 6.952]"] ;
199 -> 215 ;
216 [label="X[0] <= 0.022\ngini = 0.335\nsamples = 299\nvalue = [84.235, 311.08]"] ;
198 -> 216 ;
217 [label="X[16] <= 0.609\ngini = 0.44\nsamples = 152\nvalue = [58.263, 119.914]"] ;
216 -> 217 ;
218 [label="gini = 0.412\nsamples = 139\nvalue = [49.137, 119.914]"] ;
217 -> 218 ;
277 [label="gini = 0.0\nsamples = 13\nvalue = [9.125, 0.0]"] ;
217 -> 277 ;
278 [label="gini = 0.211\nsamples = 147\nvalue = [25.972, 191.167]"] ;
216 -> 278 ;
}